svm_type c_svc
kernel_type rbf
gamma 0.25
nr_class 3
total_sv 18
rho 0.022108025439688938 0.0065175492979033522 -0.14553828600574181
label 0 1 2
nr_sv 6 6 6
SV
1 1 1:5.9 2:0.2 3:0.28 4:1 
0.95120170757454037 0.99235760776195536 1:11.5 2:0.42 3:0.48 4:2.6 
1 0.9958440697500015 1:6 2:0.27 3:0.32 4:3.6 
1 1 1:6 2:0.36 3:0.16 4:6.3 
1 1 1:8.2 2:1 3:0.09 4:2.3 
1 1 1:7.8 2:0.16 3:0.41 4:1.7 
-0.97678198243300385 1 1:6.2 2:0.2 3:0.25 4:15 
-1 1 1:7.1 2:0.68 3:0 4:2.3 
-1 1 1:8.4 2:1.035 3:0.15 4:6 
-1 1 1:6 2:0.41 3:0.23 4:1.1 
-1 1 1:6.3 2:0.13 3:0.42 4:1.1 
-0.97441972514153652 1 1:9.1 2:0.27 3:0.45 4:10.6 
-0.99235760776195536 -1 1:6.5 2:0.23 3:0.36 4:16.3 
-1 -1 1:7.1 2:0.13 3:0.4 4:1.2 
-1 -1 1:8.2 2:0.24 3:0.34 4:5.1 
-0.9958440697500015 -1 1:7 2:0.24 3:0.51 4:11 
-1 -1 1:7.4 2:0.2 3:0.36 4:1.2 
-1 -1 1:8 2:0.19 3:0.3 4:2 
