svm_type c_svc
kernel_type rbf
gamma 2
nr_class 3
total_sv 95
rho 34.824958391896672 0.65309419478832875 0.5756619510526727
label 0 1 -1
nr_sv 28 38 29
SV
471.91435987340833 0 1:0.88095021 2:0.62785836 3:0.66666667 4:0.0060108887 
512 0 1:0.61924622 2:0.41349122 3:1 4:0.00032603234 
512 0 1:0.44759617 2:0.87510249 3:1 4:0.0072304722 
264.5309051662469 0 1:0.98869512 2:0.3639191 3:1 4:0.0085108969 
512 0 1:0.77072897 2:0.50838277 3:1 4:0.0087319222 
512 0.84283708036970639 1:0.34443743 2:0.76733697 3:1 4:0.0017405792 
66.741757206612562 2.615703014028389 1:0.99338834 2:0.93970287 3:0.33333333 4:0.13766149 
512 0 1:0.68847088 2:0.37460302 3:1 4:0.0028465467 
254.06399966249006 0 1:0.87102715 2:0.30568047 3:1 4:0.0034550217 
174.84189272257015 0 1:0.38603466 2:0.70482867 3:1 4:0.0008593718 
512 0 1:0.65794689 2:0.58515915 3:1 4:0.0089209482 
512 0 1:0.72868832 2:0.35046602 3:1 4:0.0043519906 
512 0 1:0.35401727 2:0.74038953 3:1 4:0.0059094899 
273.42406166562506 0 1:0.54236682 2:0.73510811 3:1 4:0.008781252 
39.420694358354005 0 1:0.49253149 2:0.56872095 3:1 4:0.0011704707 
512 0 1:0.51234181 2:0.74062553 3:0.66666667 4:0.0063335799 
512 0 1:0.68419939 2:0.38205121 3:1 4:0.0078784093 
512 0.98984025095999306 1:0.99249482 2:0.26107768 3:1 4:0.007526507 
512 0 1:0.91766858 2:0.63902044 3:0.66666667 4:0.0033022872 
512 0 1:0.79008684 2:0.48667343 3:0.66666667 4:0.008997224 
512 0 1:0.92886228 2:0.40150793 3:1 4:0.0027369399 
512 0 1:0.49797506 2:0.52318578 3:1 4:0.00052181539 
512 0 1:0.46703099 2:0.85169199 3:1 4:0.0077739024 
479.03651310139929 0 1:0.57502239 2:0.69783243 3:0.66666667 4:0.0083637841 
235.92234752327167 0 1:0.86431147 2:0.43242992 3:1 4:0.0047603872 
129.35842854196716 2.4109165068058633 1:0.85632562 2:0.9445839 3:0.33333333 4:0.33281991 
384.12301557496113 0 1:0.6090115 2:0.92450404 3:0.66666667 4:0.0024579794 
512 0 1:0.81584276 2:0.46182301 3:1 4:0.001386554 
-417.70494722374707 0 1:0.80745072 2:0.42991833 3:0.66666667 4:0.0035541618 
-369.81893913077204 0 1:0.2952432 2:0.82147528 3:1 4:0.0013314874 
-436.01392068957455 0 1:0.66342118 2:0.3544643 3:1 4:0.0010735834 
-512 0 1:0.32037578 2:0.76097625 3:1 4:0.0097609436 
-512 0 1:0.54317535 2:0.4519243 3:1 4:0.0071640344 
-512 0 1:0.66425039 2:0.91950092 3:0.66666667 4:0.0098932937 
-512 0 1:0.64438992 2:0.63996848 3:1 4:0.0095546169 
-0 0.77198967573323984 1:0.94978124 2:0.69912796 3:0.33333333 4:0.32205727 
-512 0 1:0.75203327 2:0.53586419 3:1 4:0.0083366983 
-57.624028524208136 0 1:0.68018793 2:0.54492397 3:0.66666667 4:0.0032065633 
-512 0 1:0.96407881 2:0.63285415 3:0.66666667 4:0.0016047312 
-512 0 1:0.74226059 2:0.33061072 3:1 4:0.0047241777 
-0 0.090485810113070456 1:0.012615024 2:0.95755415 3:1 4:0.0015390279 
-243.61176240251433 0 1:0.8866077 2:0.68855498 3:0.66666667 4:0.009662636 
-0 3.0775178045450704 1:0.085079362 2:0.11298255 3:0.33333333 4:0.34058133 
-512 0 1:0.73435396 2:0.54650805 3:1 4:0.0025445032 
-32.677859451340375 0 1:0.34741652 2:0.94515792 3:0.66666667 4:0.0043024789 
-66.216346146853496 0 1:0.40522489 2:0.80899906 3:0.66666667 4:0.0042972963 
-438.80621095519837 0 1:0.97638237 2:0.43243471 3:1 4:0.0020667806 
-0 3.5696252405208146 1:0.054196762 2:0.98045454 3:0.33333333 4:0.1706781 
-0 0.56213237161435836 1:0.025080426 2:0.0042176566 3:1 4:0.0056344456 
-512 0 1:0.58194831 2:0.63607846 3:0.66666667 4:0.0017915029 
-512 0 1:0.87774134 2:0.47327271 3:1 4:0.0020691153 
-512 0 1:0.71960766 2:0.55948522 3:1 4:0.0051206527 
-512 0 1:0.95050051 2:0.23799679 3:1 4:0.0014591402 
-75.604386541729696 1.1871741238480105 1:0.6930914 2:0.96771031 3:0.33333333 4:0.29791542 
-0 0.56723706515692507 1:0.99994775 2:0.97022964 3:1 4:0.0076091861 
-512 0 1:0.89982557 2:0.26360265 3:1 4:0.003489754 
-512 0 1:0.53175369 2:0.78300437 3:1 4:0.0078356911 
-109.11218125902894 0.91333547643477697 1:0.94409252 2:0.72916697 3:0.33333333 4:0.24364601 
-0 0.28346993047457758 1:0.95974844 2:0.0032796703 3:1 4:0.0012150562 
-512 0 1:0.59287084 2:0.41846322 3:1 4:0.0060349847 
-512 0 1:0.35005418 2:0.68508813 3:1 4:0.00016328074 
-408.70854093713086 0 1:0.44890177 2:0.94602591 3:1 4:0.0048608937 
-512 0 1:0.54477401 2:0.66500152 3:0.66666667 4:0.0058416531 
-0 2.0555673145774089 1:0.8406371 2:0.019838201 3:0.33333333 4:0.18565231 
-117.47885213481212 0 1:0.86101962 2:0.25291151 3:1 4:0.0096902205 
-0 1.1898737163353668 1:0.95720269 2:0.13997286 3:0.33333333 4:0.31065738 
-3.0676860665472216 -1.0464931341596269 1:0.9975452 2:0.92105708 3:0 4:0.15739029 
-1.2560656909611019 -0.87111619373562155 1:0.77045506 2:0.8867815 3:0 4:0.37769354 
-0.13974498397889398 -1.7947696474396826 1:0.0053060211 2:0.033802399 3:0 4:0.322909 
-0.23376689334155354 -1.2050050114659832 1:0.97553729 2:0.032681469 3:0 4:0.21615959 
-0 -0.4682498981048297 1:0.95508567 2:0.072889213 3:0 4:0.36135307 
-0 -0.57487100330662 1:0.989769 2:0.58477255 3:0 4:0.35276521 
-0 -0.21798756466455851 1:0.016159057 2:0.20848453 3:0 4:0.37028761 
-0 -0.42216835790215756 1:0.66503903 2:0.028097092 3:0 4:0.36016054 
-0 -0.22196734175293525 1:0.94089347 2:0.11906875 3:0 4:0.38523215 
-0.12045293349225061 -0.012584258163769997 1:0.57347064 2:0.98555876 3:0 4:0.1319666 
-0 -0.19628607626668168 1:0.40908613 2:0.099969748 3:0 4:0.32606445 
-0 -0.43463722319972498 1:0.11351922 2:0.27177904 3:0 4:0.39562538 
-0 -0.32783243038927501 1:0.95435841 2:0.20989871 3:0 4:0.10149576 
-0.16994240117415557 -2.6697244914310678 1:0.10453747 2:0.99594609 3:0 4:0.22920184 
-0.22300536415866429 -0.1981243503836439 1:0.97568043 2:-1 3:0 4:0.11521709 
-0.085771637710109608 -0 1:0.027411688 2:0.23780679 3:0 4:0.0061896317 
-0.060627956856994784 -0.75743922728975011 1:0.036862641 2:0.82686094 3:0 4:0.0086324316 
-0.12508670999712537 -0.16780677650647105 1:-1 2:0.098756685 3:1 4:0.0023445022 
-0.24639909508905422 -0.30735851412124959 1:-1 2:0.75448416 3:1 4:0.0010520759 
-0.13298626552565615 -0.28510959357667659 1:-1 2:0.014349978 3:0.66666667 4:0.0013513707 
-0.18009106310382444 -0 1:0.15409809 2:-1 3:0 4:0.28108917 
-0.2535024751032402 -0 1:-1 2:0.65720831 3:0 4:0.26406448 
-0.20581550368748402 -0.33311296343676311 1:0.22585554 2:-1 3:1 4:0.00034437071 
-0.067928394831512987 -0.33184626714864424 1:0.041800267 2:-1 3:0.33333333 4:0.25599163 
-0.013815420402974246 -0.55356617679267572 1:0.59221042 2:0.078152688 3:0 4:0.0098955727 
-0.0060464698477098282 -0.39406089992456561 1:-1 2:0.76466547 3:0.33333333 4:0.32551005 
-0 -0.028935497431587139 1:0.87766689 2:-1 3:0 4:0.29253565 
-0 -0.19817048808327922 1:0.96290828 2:-1 3:0.66666667 4:0.0062750658 
-0.27056152635442521 -0.24918514267578051 1:0.93919294 2:-1 3:1 4:0.0045492828 
